%YAML:1.0
---
opencv_ml_rtrees:
   format: 3
   is_classifier: 1
   var_all: 11
   var_count: 10
   ord_var_count: 10
   cat_var_count: 1
   training_params:
      use_surrogates: 0
      max_categories: 10
      regression_accuracy: 0.
      max_depth: 5
      min_sample_count: 10
      cross_validation_folds: 0
      nactive_vars: 0
   global_var_idx: 1
   var_idx: [ 0, 1, 2, 3, 4, 5, 6, 7, 8, 9 ]
   var_type: [ 0, 0, 0, 0, 0, 0, 0, 0, 0, 0, 1 ]
   cat_ofs: [ 0, 0, 0, 0, 0, 0, 0, 0, 0, 0, 0, 0, 0, 0, 0, 0, 0, 0, 0, 0 ]
   class_labels: [ 1, 2, 3, 4, 5, 6, 7, 11, 12, 13 ]
   missing_subst: [ 0., 0., 0., 0., 0., 0., 0., 0., 0., 0., 0. ]
   oob_error: 1.3853947100020397e-01
   ntrees: 100
   trees:
      -
         nodes:
            -
               depth: 0
               value: 11.
               norm_class_idx: 7
               splits:
                  - { var:3, quality:1.4751322265625000e+04,
                      le:6.7215441894531250e+02 }
            -
               depth: 1
               value: 6.
               norm_class_idx: 5
               splits:
                  - { var:1, quality:7.2050507812500000e+03,
                      le:3.6641412353515625e+02 }
            -
               depth: 2
               value: 6.
               norm_class_idx: 5
            -
               depth: 2
               value: 3.
               norm_class_idx: 2
               splits:
                  - { var:9, quality:157., le:6.2122375488281250e+02 }
            -
               depth: 3
               value: 4.
               norm_class_idx: 3
            -
               depth: 3
               value: 3.
               norm_class_idx: 2
            -
               depth: 1
               value: 11.
               norm_class_idx: 7
               splits:
                  - { var:0, quality:1.5414094726562500e+04,
                      le:5.9803576660156250e+02 }
            -
               depth: 2
               value: 11.
               norm_class_idx: 7
               splits:
                  - { var:1, quality:1.3706708984375000e+04,
                      le:1.2030600585937500e+03 }
            -
               depth: 3
               value: 11.
               norm_class_idx: 7
               splits:
                  - { var:3, quality:1.1486660156250000e+04,
                      le:2.2142424316406250e+03 }
            -
               depth: 4
               value: 5.
               norm_class_idx: 4
               splits:
                  - { var:7, quality:5.9217045898437500e+03,
                      le:9.5836145019531250e+02 }
            -
               depth: 5
               value: 5.
               norm_class_idx: 4
            -
               depth: 5
               value: 6.
               norm_class_idx: 5
            -
               depth: 4
               value: 1.
               norm_class_idx: 0
               splits:
                  - { var:9, quality:8.2826777343750000e+03,
                      le:8.3176049804687500e+02 }
            -
               depth: 5
               value: 12.
               norm_class_idx: 8
            -
               depth: 5
               value: 1.
               norm_class_idx: 0
            -
               depth: 3
               value: 2.
               norm_class_idx: 1
               splits:
                  - { var:7, quality:6.4388662109375000e+03,
                      le:4.8291851806640625e+02 }
            -
               depth: 4
               value: 2.
               norm_class_idx: 1
               splits:
                  - { var:2, quality:6.2432456054687500e+03,
                      le:3.9595175781250000e+03 }
            -
               depth: 5
               value: 2.
               norm_class_idx: 1
            -
               depth: 5
               value: 4.
               norm_class_idx: 3
            -
               depth: 4
               value: 2.
               norm_class_idx: 1
               splits:
                  - { var:3, quality:5.0337127685546875e+02,
                      le:2.6206230468750000e+03 }
            -
               depth: 5
               value: 5.
               norm_class_idx: 4
            -
               depth: 5
               value: 2.
               norm_class_idx: 1
            -
               depth: 2
               value: 7.
               norm_class_idx: 6
               splits:
                  - { var:0, quality:1.3936836914062500e+04,
                      le:1.2362011718750000e+03 }
            -
               depth: 3
               value: 3.
               norm_class_idx: 2
               splits:
                  - { var:4, quality:1.0449549804687500e+04,
                      le:2.3662124023437500e+03 }
            -
               depth: 4
               value: 3.
               norm_class_idx: 2
               splits:
                  - { var:6, quality:6.3649951171875000e+03,
                      le:1.1113476562500000e+03 }
            -
               depth: 5
               value: 3.
               norm_class_idx: 2
            -
               depth: 5
               value: 4.
               norm_class_idx: 3
            -
               depth: 4
               value: 4.
               norm_class_idx: 3
               splits:
                  - { var:8, quality:4.7298603515625000e+03,
                      le:1.3422944335937500e+03 }
            -
               depth: 5
               value: 4.
               norm_class_idx: 3
            -
               depth: 5
               value: 13.
               norm_class_idx: 9
            -
               depth: 3
               value: 13.
               norm_class_idx: 9
               splits:
                  - { var:9, quality:1.1786166992187500e+04,
                      le:2.2531025390625000e+03 }
            -
               depth: 4
               value: 7.
               norm_class_idx: 6
               splits:
                  - { var:2, quality:6.1157578125000000e+03,
                      le:3.2009296875000000e+03 }
            -
               depth: 5
               value: 7.
               norm_class_idx: 6
            -
               depth: 5
               value: 7.
               norm_class_idx: 6
            -
               depth: 4
               value: 13.
               norm_class_idx: 9
               splits:
                  - { var:2, quality:6.5166845703125000e+03,
                      le:3.6786123046875000e+03 }
            -
               depth: 5
               value: 7.
               norm_class_idx: 6
            -
               depth: 5
               value: 13.
               norm_class_idx: 9
      -
         nodes:
            -
               depth: 0
               value: 13.
               norm_class_idx: 9
               splits:
                  - { var:0, quality:1.5830851562500000e+04,
                      le:1.4621897888183594e+02 }
            -
               depth: 1
               value: 6.
               norm_class_idx: 5
            -
               depth: 1
               value: 13.
               norm_class_idx: 9
               splits:
                  - { var:8, quality:1.4284546875000000e+04,
                      le:1.0775090332031250e+03 }
            -
               depth: 2
               value: 11.
               norm_class_idx: 7
               splits:
                  - { var:1, quality:1.3962393554687500e+04,
                      le:1.1943303222656250e+03 }
            -
               depth: 3
               value: 11.
               norm_class_idx: 7
               splits:
                  - { var:6, quality:1.3620871093750000e+04,
                      le:8.3997009277343750e+02 }
            -
               depth: 4
               value: 12.
               norm_class_idx: 8
               splits:
                  - { var:5, quality:1.2082458007812500e+04,
                      le:1.8415213623046875e+03 }
            -
               depth: 5
               value: 5.
               norm_class_idx: 4
            -
               depth: 5
               value: 1.
               norm_class_idx: 0
            -
               depth: 4
               value: 11.
               norm_class_idx: 7
               splits:
                  - { var:7, quality:6.8996801757812500e+03,
                      le:4.8807247924804688e+02 }
            -
               depth: 5
               value: 11.
               norm_class_idx: 7
            -
               depth: 5
               value: 1.
               norm_class_idx: 0
            -
               depth: 3
               value: 3.
               norm_class_idx: 2
               splits:
                  - { var:0, quality:1.2592152343750000e+04,
                      le:6.1155224609375000e+02 }
            -
               depth: 4
               value: 2.
               norm_class_idx: 1
               splits:
                  - { var:4, quality:6.3982578125000000e+03,
                      le:3.4497419433593750e+03 }
            -
               depth: 5
               value: 2.
               norm_class_idx: 1
            -
               depth: 5
               value: 4.
               norm_class_idx: 3
            -
               depth: 4
               value: 3.
               norm_class_idx: 2
               splits:
                  - { var:5, quality:9.5274697265625000e+03,
                      le:1.9490988769531250e+03 }
            -
               depth: 5
               value: 3.
               norm_class_idx: 2
            -
               depth: 5
               value: 4.
               norm_class_idx: 3
            -
               depth: 2
               value: 13.
               norm_class_idx: 9
               splits:
                  - { var:5, quality:1.0389002929687500e+04,
                      le:3.0257167968750000e+03 }
            -
               depth: 3
               value: 7.
               norm_class_idx: 6
               splits:
                  - { var:3, quality:4.4438735351562500e+03,
                      le:2.6903107910156250e+03 }
            -
               depth: 4
               value: 7.
               norm_class_idx: 6
               splits:
                  - { var:7, quality:3.5430942382812500e+03,
                      le:1.0392899169921875e+03 }
            -
               depth: 5
               value: 7.
               norm_class_idx: 6
            -
               depth: 5
               value: 7.
               norm_class_idx: 6
            -
               depth: 4
               value: 7.
               norm_class_idx: 6
               splits:
                  - { var:7, quality:1.2020065917968750e+03,
                      le:1.1059924316406250e+03 }
            -
               depth: 5
               value: 4.
               norm_class_idx: 3
            -
               depth: 5
               value: 7.
               norm_class_idx: 6
            -
               depth: 3
               value: 13.
               norm_class_idx: 9
               splits:
                  - { var:0, quality:6.5490483398437500e+03,
                      le:3.9956972656250000e+03 }
            -
               depth: 4
               value: 13.
               norm_class_idx: 9
               splits:
                  - { var:0, quality:6.5521782226562500e+03,
                      le:1.5178360595703125e+03 }
            -
               depth: 5
               value: 4.
               norm_class_idx: 3
            -
               depth: 5
               value: 13.
               norm_class_idx: 9
            -
               depth: 4
               value: 7.
               norm_class_idx: 6
               splits:
                  - { var:3, quality:1.3845361328125000e+02,
                      le:5.5604951171875000e+03 }
            -
               depth: 5
               value: 7.
               norm_class_idx: 6
            -
               depth: 5
               value: 7.
               norm_class_idx: 6
      -
         nodes:
            -
               depth: 0
               value: 7.
               norm_class_idx: 6
               splits:
                  - { var:3, quality:1.4740065429687500e+04,
                      le:6.6971087646484375e+02 }
            -
               depth: 1
               value: 6.
               norm_class_idx: 5
               splits:
                  - { var:1, quality:7.1500131835937500e+03,
                      le:3.0689849853515625e+02 }
            -
               depth: 2
               value: 6.
               norm_class_idx: 5
            -
               depth: 2
               value: 3.
               norm_class_idx: 2
               splits:
                  - { var:3, quality:152., le:4.7753311157226562e+02 }
            -
               depth: 3
               value: 4.
               norm_class_idx: 3
            -
               depth: 3
               value: 3.
               norm_class_idx: 2
            -
               depth: 1
               value: 7.
               norm_class_idx: 6
               splits:
                  - { var:0, quality:1.5488650390625000e+04,
                      le:6.0885742187500000e+02 }
            -
               depth: 2
               value: 2.
               norm_class_idx: 1
               splits:
                  - { var:6, quality:1.3003396484375000e+04,
                      le:8.4462310791015625e+02 }
            -
               depth: 3
               value: 12.
               norm_class_idx: 8
               splits:
                  - { var:2, quality:1.1950704101562500e+04,
                      le:2.6074121093750000e+03 }
            -
               depth: 4
               value: 5.
               norm_class_idx: 4
               splits:
                  - { var:6, quality:6.6359624023437500e+03,
                      le:6.5785986328125000e+02 }
            -
               depth: 5
               value: 2.
               norm_class_idx: 1
            -
               depth: 5
               value: 5.
               norm_class_idx: 4
            -
               depth: 4
               value: 12.
               norm_class_idx: 8
               splits:
                  - { var:0, quality:1.2440845703125000e+04,
                      le:4.4428854370117188e+02 }
            -
               depth: 5
               value: 12.
               norm_class_idx: 8
            -
               depth: 5
               value: 2.
               norm_class_idx: 1
            -
               depth: 3
               value: 11.
               norm_class_idx: 7
               splits:
                  - { var:1, quality:6.9896103515625000e+03,
                      le:5.1259954833984375e+02 }
            -
               depth: 4
               value: 6.
               norm_class_idx: 5
            -
               depth: 4
               value: 11.
               norm_class_idx: 7
               splits:
                  - { var:1, quality:7.1255078125000000e+03,
                      le:1.1232963867187500e+03 }
            -
               depth: 5
               value: 11.
               norm_class_idx: 7
            -
               depth: 5
               value: 5.
               norm_class_idx: 4
            -
               depth: 2
               value: 7.
               norm_class_idx: 6
               splits:
                  - { var:9, quality:1.3584860351562500e+04,
                      le:1.9422578125000000e+03 }
            -
               depth: 3
               value: 4.
               norm_class_idx: 3
               splits:
                  - { var:0, quality:1.2316844726562500e+04,
                      le:1.2314023437500000e+03 }
            -
               depth: 4
               value: 3.
               norm_class_idx: 2
               splits:
                  - { var:4, quality:1.0467434570312500e+04,
                      le:2.3682009277343750e+03 }
            -
               depth: 5
               value: 3.
               norm_class_idx: 2
            -
               depth: 5
               value: 4.
               norm_class_idx: 3
            -
               depth: 4
               value: 7.
               norm_class_idx: 6
               splits:
                  - { var:3, quality:5.8400888671875000e+03,
                      le:2.6682211914062500e+03 }
            -
               depth: 5
               value: 7.
               norm_class_idx: 6
            -
               depth: 5
               value: 7.
               norm_class_idx: 6
            -
               depth: 3
               value: 13.
               norm_class_idx: 9
               splits:
                  - { var:4, quality:7.0371704101562500e+03,
                      le:3.5034541015625000e+03 }
            -
               depth: 4
               value: 7.
               norm_class_idx: 6
               splits:
                  - { var:7, quality:7.1285394287109375e+02,
                      le:2.3238627929687500e+03 }
            -
               depth: 5
               value: 13.
               norm_class_idx: 9
            -
               depth: 5
               value: 7.
               norm_class_idx: 6
            -
               depth: 4
               value: 13.
               norm_class_idx: 9
               splits:
                  - { var:7, quality:6.5272758789062500e+03,
                      le:5.9897529296875000e+03 }
            -
               depth: 5
               value: 13.
               norm_class_idx: 9
            -
               depth: 5
               value: 7.
               norm_class_idx: 6
      -
         nodes:
            -
               depth: 0
               value: 5.
               norm_class_idx: 4
               splits:
                  - { var:0, quality:1.6000801757812500e+04,
                      le:1.4888787841796875e+02 }
            -
               depth: 1
               value: 6.
               norm_class_idx: 5
            -
               depth: 1
               value: 5.
               norm_class_idx: 4
               splits:
                  - { var:7, quality:1.5218718750000000e+04,
                      le:5.2169824218750000e+02 }
            -
               depth: 2
               value: 12.
               norm_class_idx: 8
               splits:
                  - { var:3, quality:1.1349365234375000e+04,
                      le:2.2137160644531250e+03 }
            -
               depth: 3
               value: 5.
               norm_class_idx: 4
               splits:
                  - { var:8, quality:6.6157670898437500e+03,
                      le:6.5983367919921875e+02 }
            -
               depth: 4
               value: 2.
               norm_class_idx: 1
               splits:
                  - { var:3, quality:1.6069132080078125e+03,
                      le:9.4032250976562500e+02 }
            -
               depth: 5
               value: 3.
               norm_class_idx: 2
            -
               depth: 5
               value: 2.
               norm_class_idx: 1
            -
               depth: 4
               value: 5.
               norm_class_idx: 4
               splits:
                  - { var:5, quality:7.0321220703125000e+03,
                      le:1.8429722900390625e+03 }
            -
               depth: 5
               value: 5.
               norm_class_idx: 4
            -
               depth: 5
               value: 11.
               norm_class_idx: 7
            -
               depth: 3
               value: 1.
               norm_class_idx: 0
               splits:
                  - { var:7, quality:8.2688037109375000e+03,
                      le:4.3065887451171875e+02 }
            -
               depth: 4
               value: 12.
               norm_class_idx: 8
               splits:
                  - { var:6, quality:4.2490434570312500e+03,
                      le:7.7899084472656250e+02 }
            -
               depth: 5
               value: 12.
               norm_class_idx: 8
            -
               depth: 5
               value: 11.
               norm_class_idx: 7
            -
               depth: 4
               value: 1.
               norm_class_idx: 0
               splits:
                  - { var:1, quality:8.4736884765625000e+03,
                      le:1.2250034179687500e+03 }
            -
               depth: 5
               value: 1.
               norm_class_idx: 0
            -
               depth: 5
               value: 2.
               norm_class_idx: 1
            -
               depth: 2
               value: 7.
               norm_class_idx: 6
               splits:
                  - { var:4, quality:1.2324953125000000e+04,
                      le:3.6225275878906250e+03 }
            -
               depth: 3
               value: 7.
               norm_class_idx: 6
               splits:
                  - { var:0, quality:1.1914165039062500e+04,
                      le:1.2389685058593750e+03 }
            -
               depth: 4
               value: 3.
               norm_class_idx: 2
               splits:
                  - { var:4, quality:9.0054716796875000e+03,
                      le:2.3542028808593750e+03 }
            -
               depth: 5
               value: 3.
               norm_class_idx: 2
            -
               depth: 5
               value: 4.
               norm_class_idx: 3
            -
               depth: 4
               value: 7.
               norm_class_idx: 6
               splits:
                  - { var:2, quality:6.4354477539062500e+03,
                      le:3.1529033203125000e+03 }
            -
               depth: 5
               value: 7.
               norm_class_idx: 6
            -
               depth: 5
               value: 7.
               norm_class_idx: 6
            -
               depth: 3
               value: 13.
               norm_class_idx: 9
               splits:
                  - { var:8, quality:6.9548833007812500e+03,
                      le:1.8634523925781250e+03 }
            -
               depth: 4
               value: 4.
               norm_class_idx: 3
               splits:
                  - { var:2, quality:7.8932611083984375e+02,
                      le:3.9777287597656250e+03 }
            -
               depth: 5
               value: 7.
               norm_class_idx: 6
            -
               depth: 5
               value: 4.
               norm_class_idx: 3
            -
               depth: 4
               value: 13.
               norm_class_idx: 9
               splits:
                  - { var:0, quality:6.3309233398437500e+03,
                      le:4.1852265625000000e+03 }
            -
               depth: 5
               value: 13.
               norm_class_idx: 9
            -
               depth: 5
               value: 7.
               norm_class_idx: 6
      -
         nodes:
            -
               depth: 0
               value: 6.
               norm_class_idx: 5
               splits:
                  - { var:1, quality:1.6179267578125000e+04,
                      le:3.5058523559570312e+02 }
            -
               depth: 1
               value: 6.
               norm_class_idx: 5
            -
               depth: 1
               value: 3.
               norm_class_idx: 2
               splits:
                  - { var:9, quality:1.4231000976562500e+04,
                      le:1.0965161132812500e+03 }
            -
               depth: 2
               value: 3.
               norm_class_idx: 2
               splits:
                  - { var:1, quality:1.4026383789062500e+04,
                      le:1.1970349121093750e+03 }
            -
               depth: 3
               value: 12.
               norm_class_idx: 8
               splits:
                  - { var:4, quality:1.2556520507812500e+04,
                      le:2.3125029296875000e+03 }
            -
               depth: 4
               value: 5.
               norm_class_idx: 4
               splits:
                  - { var:6, quality:6.7288750000000000e+03,
                      le:6.5773669433593750e+02 }
            -
               depth: 5
               value: 2.
               norm_class_idx: 1
            -
               depth: 5
               value: 5.
               norm_class_idx: 4
            -
               depth: 4
               value: 12.
               norm_class_idx: 8
               splits:
                  - { var:6, quality:1.3342168945312500e+04,
                      le:8.2713153076171875e+02 }
            -
               depth: 5
               value: 12.
               norm_class_idx: 8
            -
               depth: 5
               value: 11.
               norm_class_idx: 7
            -
               depth: 3
               value: 3.
               norm_class_idx: 2
               splits:
                  - { var:0, quality:1.2895915039062500e+04,
                      le:6.0831756591796875e+02 }
            -
               depth: 4
               value: 2.
               norm_class_idx: 1
               splits:
                  - { var:6, quality:6.8201914062500000e+03,
                      le:8.4506262207031250e+02 }
            -
               depth: 5
               value: 2.
               norm_class_idx: 1
            -
               depth: 5
               value: 5.
               norm_class_idx: 4
            -
               depth: 4
               value: 3.
               norm_class_idx: 2
               splits:
                  - { var:2, quality:9.6737158203125000e+03,
                      le:2.7364050292968750e+03 }
            -
               depth: 5
               value: 3.
               norm_class_idx: 2
            -
               depth: 5
               value: 4.
               norm_class_idx: 3
            -
               depth: 2
               value: 13.
               norm_class_idx: 9
               splits:
                  - { var:3, quality:1.0110612304687500e+04,
                      le:3.1429204101562500e+03 }
            -
               depth: 3
               value: 7.
               norm_class_idx: 6
               splits:
                  - { var:0, quality:4.4865747070312500e+03,
                      le:1.3656074218750000e+03 }
            -
               depth: 4
               value: 4.
               norm_class_idx: 3
               splits:
                  - { var:9, quality:4.4600079345703125e+02,
                      le:1.4266879882812500e+03 }
            -
               depth: 5
               value: 4.
               norm_class_idx: 3
            -
               depth: 5
               value: 13.
               norm_class_idx: 9
            -
               depth: 4
               value: 7.
               norm_class_idx: 6
               splits:
                  - { var:4, quality:4.4627460937500000e+03,
                      le:2.9804257812500000e+03 }
            -
               depth: 5
               value: 7.
               norm_class_idx: 6
            -
               depth: 5
               value: 7.
               norm_class_idx: 6
            -
               depth: 3
               value: 13.
               norm_class_idx: 9
               splits:
                  - { var:5, quality:6.6226669921875000e+03,
                      le:3.1724663085937500e+03 }
            -
               depth: 4
               value: 13.
               norm_class_idx: 9
               splits:
                  - { var:1, quality:7.0936004638671875e+02,
                      le:2.9238466796875000e+03 }
            -
               depth: 5
               value: 13.
               norm_class_idx: 9
            -
               depth: 5
               value: 7.
               norm_class_idx: 6
            -
               depth: 4
               value: 13.
               norm_class_idx: 9
               splits:
                  - { var:9, quality:6.2557988281250000e+03,
                      le:5.8146777343750000e+03 }
            -
               depth: 5
               value: 13.
               norm_class_idx: 9
            -
               depth: 5
               value: 7.
               norm_class_idx: 6
      -
         nodes:
            -
               depth: 0
               value: 6.
               norm_class_idx: 5
               splits:
                  - { var:3, quality:1.4851831054687500e+04,
                      le:6.6973046875000000e+02 }
            -
               depth: 1
               value: 6.
               norm_class_idx: 5
               splits:
                  - { var:1, quality:7334., le:3.6886267089843750e+02 }
            -
               depth: 2
               value: 6.
               norm_class_idx: 5
            -
               depth: 2
               value: 3.
               norm_class_idx: 2
            -
               depth: 1
               value: 13.
               norm_class_idx: 9
               splits:
                  - { var:1, quality:1.4860822265625000e+04,
                      le:1.5694281005859375e+03 }
            -
               depth: 2
               value: 11.
               norm_class_idx: 7
               splits:
                  - { var:0, quality:1.1739994140625000e+04,
                      le:4.4109521484375000e+02 }
            -
               depth: 3
               value: 11.
               norm_class_idx: 7
               splits:
                  - { var:4, quality:1.1851849609375000e+04,
                      le:2.3063061523437500e+03 }
            -
               depth: 4
               value: 5.
               norm_class_idx: 4
               splits:
                  - { var:8, quality:6.3558178710937500e+03,
                      le:7.8198205566406250e+02 }
            -
               depth: 5
               value: 5.
               norm_class_idx: 4
            -
               depth: 5
               value: 6.
               norm_class_idx: 5
            -
               depth: 4
               value: 12.
               norm_class_idx: 8
               splits:
                  - { var:6, quality:1.3527135742187500e+04,
                      le:8.0616210937500000e+02 }
            -
               depth: 5
               value: 12.
               norm_class_idx: 8
            -
               depth: 5
               value: 11.
               norm_class_idx: 7
            -
               depth: 3
               value: 2.
               norm_class_idx: 1
               splits:
                  - { var:7, quality:5.9252060546875000e+03,
                      le:4.6149105834960938e+02 }
            -
               depth: 4
               value: 2.
               norm_class_idx: 1
               splits:
                  - { var:6, quality:5.3719926757812500e+03,
                      le:7.9802441406250000e+02 }
            -
               depth: 5
               value: 2.
               norm_class_idx: 1
            -
               depth: 5
               value: 5.
               norm_class_idx: 4
            -
               depth: 4
               value: 2.
               norm_class_idx: 1
               splits:
                  - { var:2, quality:1.5094998779296875e+03,
                      le:1.7888525390625000e+03 }
            -
               depth: 5
               value: 3.
               norm_class_idx: 2
            -
               depth: 5
               value: 2.
               norm_class_idx: 1
            -
               depth: 2
               value: 13.
               norm_class_idx: 9
               splits:
                  - { var:0, quality:1.3512090820312500e+04,
                      le:1.2362011718750000e+03 }
            -
               depth: 3
               value: 3.
               norm_class_idx: 2
               splits:
                  - { var:4, quality:9.7006777343750000e+03,
                      le:2.3379018554687500e+03 }
            -
               depth: 4
               value: 3.
               norm_class_idx: 2
               splits:
                  - { var:5, quality:5.5273090820312500e+03,
                      le:1.4533935546875000e+03 }
            -
               depth: 5
               value: 3.
               norm_class_idx: 2
            -
               depth: 5
               value: 3.
               norm_class_idx: 2
            -
               depth: 4
               value: 4.
               norm_class_idx: 3
               splits:
                  - { var:7, quality:4.4787333984375000e+03,
                      le:5.0685388183593750e+02 }
            -
               depth: 5
               value: 4.
               norm_class_idx: 3
            -
               depth: 5
               value: 4.
               norm_class_idx: 3
            -
               depth: 3
               value: 13.
               norm_class_idx: 9
               splits:
                  - { var:8, quality:1.1741049804687500e+04,
                      le:2.0479757080078125e+03 }
            -
               depth: 4
               value: 7.
               norm_class_idx: 6
               splits:
                  - { var:3, quality:5.7487973632812500e+03,
                      le:2.7085136718750000e+03 }
            -
               depth: 5
               value: 7.
               norm_class_idx: 6
            -
               depth: 5
               value: 7.
               norm_class_idx: 6
            -
               depth: 4
               value: 13.
               norm_class_idx: 9
               splits:
                  - { var:3, quality:6.8414931640625000e+03,
                      le:3.3129138183593750e+03 }
            -
               depth: 5
               value: 7.
               norm_class_idx: 6
            -
               depth: 5
               value: 13.
               norm_class_idx: 9
      -
         nodes:
            -
               depth: 0
               value: 7.
               norm_class_idx: 6
               splits:
                  - { var:1, quality:1.5945545898437500e+04,
                      le:3.5058523559570312e+02 }
            -
               depth: 1
               value: 6.
               norm_class_idx: 5
            -
               depth: 1
               value: 7.
               norm_class_idx: 6
               splits:
                  - { var:7, quality:1.5261965820312500e+04,
                      le:5.1863281250000000e+02 }
            -
               depth: 2
               value: 11.
               norm_class_idx: 7
               splits:
                  - { var:6, quality:1.3113386718750000e+04,
                      le:8.4423303222656250e+02 }
            -
               depth: 3
               value: 12.
               norm_class_idx: 8
               splits:
                  - { var:2, quality:1.1587378906250000e+04,
                      le:2.6333691406250000e+03 }
            -
               depth: 4
               value: 5.
               norm_class_idx: 4
               splits:
                  - { var:8, quality:6.4619750976562500e+03,
                      le:6.5600732421875000e+02 }
            -
               depth: 5
               value: 2.
               norm_class_idx: 1
            -
               depth: 5
               value: 5.
               norm_class_idx: 4
            -
               depth: 4
               value: 12.
               norm_class_idx: 8
               splits:
                  - { var:1, quality:1.2928471679687500e+04,
                      le:1.1974176025390625e+03 }
            -
               depth: 5
               value: 12.
               norm_class_idx: 8
            -
               depth: 5
               value: 2.
               norm_class_idx: 1
            -
               depth: 3
               value: 11.
               norm_class_idx: 7
               splits:
                  - { var:1, quality:7.2084921875000000e+03,
                      le:1.1216831054687500e+03 }
            -
               depth: 4
               value: 11.
               norm_class_idx: 7
               splits:
                  - { var:5, quality:7.1320766601562500e+03,
                      le:1.8310073242187500e+03 }
            -
               depth: 5
               value: 5.
               norm_class_idx: 4
            -
               depth: 5
               value: 11.
               norm_class_idx: 7
            -
               depth: 4
               value: 4.
               norm_class_idx: 3
               splits:
                  - { var:4, quality:7.7238470458984375e+02,
                      le:2.8268930664062500e+03 }
            -
               depth: 5
               value: 5.
               norm_class_idx: 4
            -
               depth: 5
               value: 4.
               norm_class_idx: 3
            -
               depth: 2
               value: 7.
               norm_class_idx: 6
               splits:
                  - { var:9, quality:1.3254628906250000e+04,
                      le:2.0658520507812500e+03 }
            -
               depth: 3
               value: 3.
               norm_class_idx: 2
               splits:
                  - { var:9, quality:9.9974599609375000e+03,
                      le:1.0584885253906250e+03 }
            -
               depth: 4
               value: 3.
               norm_class_idx: 2
               splits:
                  - { var:4, quality:8.7899433593750000e+03,
                      le:2.3509316406250000e+03 }
            -
               depth: 5
               value: 3.
               norm_class_idx: 2
            -
               depth: 5
               value: 4.
               norm_class_idx: 3
            -
               depth: 4
               value: 7.
               norm_class_idx: 6
               splits:
                  - { var:2, quality:4.6029819335937500e+03,
                      le:3.1740727539062500e+03 }
            -
               depth: 5
               value: 7.
               norm_class_idx: 6
            -
               depth: 5
               value: 4.
               norm_class_idx: 3
            -
               depth: 3
               value: 13.
               norm_class_idx: 9
               splits:
                  - { var:6, quality:6.7134506835937500e+03,
                      le:2.7370791015625000e+03 }
            -
               depth: 4
               value: 13.
               norm_class_idx: 9
               splits:
                  - { var:7, quality:1.0360439453125000e+03,
                      le:2.7275156250000000e+03 }
            -
               depth: 5
               value: 13.
               norm_class_idx: 9
            -
               depth: 5
               value: 7.
               norm_class_idx: 6
            -
               depth: 4
               value: 13.
               norm_class_idx: 9
               splits:
                  - { var:7, quality:5.9666318359375000e+03,
                      le:6.2056113281250000e+03 }
            -
               depth: 5
               value: 13.
               norm_class_idx: 9
            -
               depth: 5
               value: 7.
               norm_class_idx: 6
      -
         nodes:
            -
               depth: 0
               value: 2.
               norm_class_idx: 1
               splits:
                  - { var:0, quality:1.5914929687500000e+04,
                      le:1.4632954406738281e+02 }
            -
               depth: 1
               value: 6.
               norm_class_idx: 5
            -
               depth: 1
               value: 2.
               norm_class_idx: 1
               splits:
                  - { var:7, quality:1.5228577148437500e+04,
                      le:5.2103857421875000e+02 }
            -
               depth: 2
               value: 2.
               norm_class_idx: 1
               splits:
                  - { var:1, quality:1.3511523437500000e+04,
                      le:1.1878986816406250e+03 }
            -
               depth: 3
               value: 11.
               norm_class_idx: 7
               splits:
                  - { var:6, quality:1.3549668945312500e+04,
                      le:8.3997009277343750e+02 }
            -
               depth: 4
               value: 12.
               norm_class_idx: 8
               splits:
                  - { var:1, quality:9.3203486328125000e+03,
                      le:9.8241796875000000e+02 }
            -
               depth: 5
               value: 12.
               norm_class_idx: 8
            -
               depth: 5
               value: 1.
               norm_class_idx: 0
            -
               depth: 4
               value: 11.
               norm_class_idx: 7
               splits:
                  - { var:6, quality:6.8525209960937500e+03,
                      le:8.7245831298828125e+02 }
            -
               depth: 5
               value: 11.
               norm_class_idx: 7
            -
               depth: 5
               value: 11.
               norm_class_idx: 7
            -
               depth: 3
               value: 2.
               norm_class_idx: 1
               splits:
                  - { var:6, quality:6.8843002929687500e+03,
                      le:8.3427319335937500e+02 }
            -
               depth: 4
               value: 2.
               norm_class_idx: 1
               splits:
                  - { var:3, quality:6.7209716796875000e+03,
                      le:1.7292548828125000e+03 }
            -
               depth: 5
               value: 3.
               norm_class_idx: 2
            -
               depth: 5
               value: 2.
               norm_class_idx: 1
            -
               depth: 4
               value: 4.
               norm_class_idx: 3
               splits:
                  - { var:2, quality:7.4950671386718750e+02,
                      le:3.1261440429687500e+03 }
            -
               depth: 5
               value: 5.
               norm_class_idx: 4
            -
               depth: 5
               value: 4.
               norm_class_idx: 3
            -
               depth: 2
               value: 13.
               norm_class_idx: 9
               splits:
                  - { var:6, quality:1.2989047851562500e+04,
                      le:2.1732260742187500e+03 }
            -
               depth: 3
               value: 3.
               norm_class_idx: 2
               splits:
                  - { var:8, quality:9.8036494140625000e+03,
                      le:9.8757470703125000e+02 }
            -
               depth: 4
               value: 3.
               norm_class_idx: 2
               splits:
                  - { var:4, quality:7.9076845703125000e+03,
                      le:2.3509316406250000e+03 }
            -
               depth: 5
               value: 3.
               norm_class_idx: 2
            -
               depth: 5
               value: 4.
               norm_class_idx: 3
            -
               depth: 4
               value: 7.
               norm_class_idx: 6
               splits:
                  - { var:7, quality:5.5411782226562500e+03,
                      le:9.4487561035156250e+02 }
            -
               depth: 5
               value: 4.
               norm_class_idx: 3
            -
               depth: 5
               value: 7.
               norm_class_idx: 6
            -
               depth: 3
               value: 13.
               norm_class_idx: 9
               splits:
                  - { var:2, quality:6.7509604492187500e+03,
                      le:3.5535751953125000e+03 }
            -
               depth: 4
               value: 7.
               norm_class_idx: 6
               splits:
                  - { var:9, quality:4.1265118408203125e+02,
                      le:2.2649157714843750e+03 }
            -
               depth: 5
               value: 7.
               norm_class_idx: 6
            -
               depth: 5
               value: 7.
               norm_class_idx: 6
            -
               depth: 4
               value: 13.
               norm_class_idx: 9
               splits:
                  - { var:0, quality:6.5703159179687500e+03,
                      le:4.1097480468750000e+03 }
            -
               depth: 5
               value: 13.
               norm_class_idx: 9
            -
               depth: 5
               value: 7.
               norm_class_idx: 6
      -
         nodes:
            -
               depth: 0
               value: 1.
               norm_class_idx: 0
               splits:
                  - { var:2, quality:1.5017225585937500e+04,
                      le:7.1715582275390625e+02 }
            -
               depth: 1
               value: 6.
               norm_class_idx: 5
               splits:
                  - { var:1, quality:7180., le:3.0444995117187500e+02 }
            -
               depth: 2
               value: 6.
               norm_class_idx: 5
            -
               depth: 2
               value: 3.
               norm_class_idx: 2
            -
               depth: 1
               value: 1.
               norm_class_idx: 0
               splits:
                  - { var:1, quality:1.4925978515625000e+04,
                      le:1.1977642822265625e+03 }
            -
               depth: 2
               value: 11.
               norm_class_idx: 7
               splits:
                  - { var:5, quality:1.2541352539062500e+04,
                      le:1.8549924316406250e+03 }
            -
               depth: 3
               value: 5.
               norm_class_idx: 4
               splits:
                  - { var:0, quality:6.5613041992187500e+03,
                      le:3.4295550537109375e+02 }
            -
               depth: 4
               value: 6.
               norm_class_idx: 5
               splits:
                  - { var:0, quality:1.2744030761718750e+03,
                      le:1.4621897888183594e+02 }
            -
               depth: 5
               value: 6.
               norm_class_idx: 5
            -
               depth: 5
               value: 12.
               norm_class_idx: 8
            -
               depth: 4
               value: 5.
               norm_class_idx: 4
               splits:
                  - { var:2, quality:6.8471723632812500e+03,
                      le:1.9181097412109375e+03 }
            -
               depth: 5
               value: 3.
               norm_class_idx: 2
            -
               depth: 5
               value: 5.
               norm_class_idx: 4
            -
               depth: 3
               value: 11.
               norm_class_idx: 7
               splits:
                  - { var:8, quality:1.2084722656250000e+04,
                      le:8.0013067626953125e+02 }
            -
               depth: 4
               value: 12.
               norm_class_idx: 8
               splits:
                  - { var:9, quality:7.7385776367187500e+03,
                      le:8.4752258300781250e+02 }
            -
               depth: 5
               value: 12.
               norm_class_idx: 8
            -
               depth: 5
               value: 1.
               norm_class_idx: 0
            -
               depth: 4
               value: 11.
               norm_class_idx: 7
               splits:
                  - { var:0, quality:6.7668173828125000e+03,
                      le:4.1491622924804688e+02 }
            -
               depth: 5
               value: 11.
               norm_class_idx: 7
            -
               depth: 5
               value: 1.
               norm_class_idx: 0
            -
               depth: 2
               value: 7.
               norm_class_idx: 6
               splits:
                  - { var:7, quality:1.3589124023437500e+04,
                      le:4.9932128906250000e+02 }
            -
               depth: 3
               value: 2.
               norm_class_idx: 1
               splits:
                  - { var:5, quality:6.6108789062500000e+03,
                      le:2.4635385742187500e+03 }
            -
               depth: 4
               value: 2.
               norm_class_idx: 1
               splits:
                  - { var:6, quality:6.4691225585937500e+03,
                      le:8.2877600097656250e+02 }
            -
               depth: 5
               value: 2.
               norm_class_idx: 1
            -
               depth: 5
               value: 2.
               norm_class_idx: 1
            -
               depth: 4
               value: 4.
               norm_class_idx: 3
               splits:
                  - { var:9, quality:3.9045611572265625e+02,
                      le:9.5466467285156250e+02 }
            -
               depth: 5
               value: 4.
               norm_class_idx: 3
            -
               depth: 5
               value: 2.
               norm_class_idx: 1
            -
               depth: 3
               value: 7.
               norm_class_idx: 6
               splits:
                  - { var:7, quality:1.3110512695312500e+04,
                      le:9.1216040039062500e+02 }
            -
               depth: 4
               value: 3.
               norm_class_idx: 2
               splits:
                  - { var:3, quality:9.1582431640625000e+03,
                      le:2.2941982421875000e+03 }
            -
               depth: 5
               value: 3.
               norm_class_idx: 2
            -
               depth: 5
               value: 4.
               norm_class_idx: 3
            -
               depth: 4
               value: 13.
               norm_class_idx: 9
               splits:
                  - { var:3, quality:1.0946290039062500e+04,
                      le:3.1303496093750000e+03 }
            -
               depth: 5
               value: 7.
               norm_class_idx: 6
            -
               depth: 5
               value: 13.
               norm_class_idx: 9
      -
         nodes:
            -
               depth: 0
               value: 5.
               norm_class_idx: 4
               splits:
                  - { var:0, quality:1.6010088867187500e+04,
                      le:1.3662393188476562e+02 }
            -
               depth: 1
               value: 6.
               norm_class_idx: 5
            -
               depth: 1
               value: 5.
               norm_class_idx: 4
               splits:
                  - { var:0, quality:1.5577012695312500e+04,
                      le:6.0179327392578125e+02 }
            -
               depth: 2
               value: 5.
               norm_class_idx: 4
               splits:
                  - { var:5, quality:1.2471919921875000e+04,
                      le:1.8418513183593750e+03 }
            -
               depth: 3
               value: 5.
               norm_class_idx: 4
               splits:
                  - { var:9, quality:6.5488486328125000e+03,
                      le:7.8823767089843750e+02 }
            -
               depth: 4
               value: 2.
               norm_class_idx: 1
               splits:
                  - { var:1, quality:1.1998597412109375e+03,
                      le:1.0079283447265625e+03 }
            -
               depth: 5
               value: 12.
               norm_class_idx: 8
            -
               depth: 5
               value: 2.
               norm_class_idx: 1
            -
               depth: 4
               value: 5.
               norm_class_idx: 4
               splits:
                  - { var:6, quality:7.0168471679687500e+03,
                      le:6.6728784179687500e+02 }
            -
               depth: 5
               value: 2.
               norm_class_idx: 1
            -
               depth: 5
               value: 5.
               norm_class_idx: 4
            -
               depth: 3
               value: 11.
               norm_class_idx: 7
               splits:
                  - { var:8, quality:1.0953467773437500e+04,
                      le:8.0343536376953125e+02 }
            -
               depth: 4
               value: 12.
               norm_class_idx: 8
               splits:
                  - { var:8, quality:6.9121333007812500e+03,
                      le:7.2097851562500000e+02 }
            -
               depth: 5
               value: 12.
               norm_class_idx: 8
            -
               depth: 5
               value: 1.
               norm_class_idx: 0
            -
               depth: 4
               value: 11.
               norm_class_idx: 7
               splits:
                  - { var:0, quality:6.9342895507812500e+03,
                      le:4.1686959838867188e+02 }
            -
               depth: 5
               value: 11.
               norm_class_idx: 7
            -
               depth: 5
               value: 2.
               norm_class_idx: 1
            -
               depth: 2
               value: 13.
               norm_class_idx: 9
               splits:
                  - { var:0, quality:1.4049633789062500e+04,
                      le:1.2364257812500000e+03 }
            -
               depth: 3
               value: 3.
               norm_class_idx: 2
               splits:
                  - { var:4, quality:1.0433318359375000e+04,
                      le:2.3681127929687500e+03 }
            -
               depth: 4
               value: 3.
               norm_class_idx: 2
               splits:
                  - { var:6, quality:6.4292573242187500e+03,
                      le:1.0986076660156250e+03 }
            -
               depth: 5
               value: 3.
               norm_class_idx: 2
            -
               depth: 5
               value: 4.
               norm_class_idx: 3
            -
               depth: 4
               value: 4.
               norm_class_idx: 3
               splits:
                  - { var:9, quality:4.7306796875000000e+03,
                      le:1.2932135009765625e+03 }
            -
               depth: 5
               value: 4.
               norm_class_idx: 3
            -
               depth: 5
               value: 13.
               norm_class_idx: 9
            -
               depth: 3
               value: 13.
               norm_class_idx: 9
               splits:
                  - { var:5, quality:1.2152489257812500e+04,
                      le:3.0239182128906250e+03 }
            -
               depth: 4
               value: 7.
               norm_class_idx: 6
               splits:
                  - { var:4, quality:6.1755566406250000e+03,
                      le:2.9634643554687500e+03 }
            -
               depth: 5
               value: 7.
               norm_class_idx: 6
            -
               depth: 5
               value: 7.
               norm_class_idx: 6
            -
               depth: 4
               value: 13.
               norm_class_idx: 9
               splits:
                  - { var:2, quality:6.5701186523437500e+03,
                      le:3.8783706054687500e+03 }
            -
               depth: 5
               value: 13.
               norm_class_idx: 9
            -
               depth: 5
               value: 13.
               norm_class_idx: 9
      -
         nodes:
            -
               depth: 0
               value: 12.
               norm_class_idx: 8
               splits:
                  - { var:0, quality:1.5859334960937500e+04,
                      le:1.4621897888183594e+02 }
            -
               depth: 1
               value: 6.
               norm_class_idx: 5
            -
               depth: 1
               value: 12.
               norm_class_idx: 8
               splits:
                  - { var:1, quality:1.5077305664062500e+04,
                      le:1.5692742919921875e+03 }
            -
               depth: 2
               value: 12.
               norm_class_idx: 8
               splits:
                  - { var:5, quality:1.2012491210937500e+04,
                      le:1.8427104492187500e+03 }
            -
               depth: 3
               value: 5.
               norm_class_idx: 4
               splits:
                  - { var:1, quality:6.4293867187500000e+03,
                      le:1.1409345703125000e+03 }
            -
               depth: 4
               value: 5.
               norm_class_idx: 4
               splits:
                  - { var:6, quality:6.9513730468750000e+03,
                      le:6.5539135742187500e+02 }
            -
               depth: 5
               value: 12.
               norm_class_idx: 8
            -
               depth: 5
               value: 5.
               norm_class_idx: 4
            -
               depth: 4
               value: 2.
               norm_class_idx: 1
               splits:
                  - { var:0, quality:1.8190916748046875e+03,
                      le:5.1880297851562500e+02 }
            -
               depth: 5
               value: 2.
               norm_class_idx: 1
            -
               depth: 5
               value: 3.
               norm_class_idx: 2
            -
               depth: 3
               value: 11.
               norm_class_idx: 7
               splits:
                  - { var:7, quality:8.9127451171875000e+03,
                      le:4.2940576171875000e+02 }
            -
               depth: 4
               value: 12.
               norm_class_idx: 8
               splits:
                  - { var:1, quality:5.9216440429687500e+03,
                      le:1.1928305664062500e+03 }
            -
               depth: 5
               value: 12.
               norm_class_idx: 8
            -
               depth: 5
               value: 2.
               norm_class_idx: 1
            -
               depth: 4
               value: 1.
               norm_class_idx: 0
               splits:
                  - { var:8, quality:9.2417841796875000e+03,
                      le:8.0724926757812500e+02 }
            -
               depth: 5
               value: 1.
               norm_class_idx: 0
            -
               depth: 5
               value: 11.
               norm_class_idx: 7
            -
               depth: 2
               value: 13.
               norm_class_idx: 9
               splits:
                  - { var:8, quality:1.3020964843750000e+04,
                      le:1.9501800537109375e+03 }
            -
               depth: 3
               value: 4.
               norm_class_idx: 3
               splits:
                  - { var:0, quality:1.1608339843750000e+04,
                      le:1.2365817871093750e+03 }
            -
               depth: 4
               value: 3.
               norm_class_idx: 2
               splits:
                  - { var:3, quality:9.6187597656250000e+03,
                      le:2.3342099609375000e+03 }
            -
               depth: 5
               value: 3.
               norm_class_idx: 2
            -
               depth: 5
               value: 4.
               norm_class_idx: 3
            -
               depth: 4
               value: 7.
               norm_class_idx: 6
               splits:
                  - { var:3, quality:5.6250703125000000e+03,
                      le:2.8776674804687500e+03 }
            -
               depth: 5
               value: 7.
               norm_class_idx: 6
            -
               depth: 5
               value: 7.
               norm_class_idx: 6
            -
               depth: 3
               value: 13.
               norm_class_idx: 9
               splits:
                  - { var:3, quality:6.8196147460937500e+03,
                      le:3.2787265625000000e+03 }
            -
               depth: 4
               value: 7.
               norm_class_idx: 6
               splits:
                  - { var:7, quality:5.3633032226562500e+02,
                      le:2.1755903320312500e+03 }
            -
               depth: 5
               value: 13.
               norm_class_idx: 9
            -
               depth: 5
               value: 7.
               norm_class_idx: 6
            -
               depth: 4
               value: 13.
               norm_class_idx: 9
               splits:
                  - { var:6, quality:6.4844482421875000e+03,
                      le:2.8739538574218750e+03 }
            -
               depth: 5
               value: 13.
               norm_class_idx: 9
            -
               depth: 5
               value: 13.
               norm_class_idx: 9
      -
         nodes:
            -
               depth: 0
               value: 4.
               norm_class_idx: 3
               splits:
                  - { var:2, quality:1.4886911132812500e+04,
                      le:7.0887438964843750e+02 }
            -
               depth: 1
               value: 6.
               norm_class_idx: 5
               splits:
                  - { var:8, quality:7.0346430664062500e+03,
                      le:5.6564630126953125e+02 }
            -
               depth: 2
               value: 3.
               norm_class_idx: 2
               splits:
                  - { var:4, quality:28., le:5.4153338623046875e+02 }
            -
               depth: 3
               value: 6.
               norm_class_idx: 5
            -
               depth: 3
               value: 3.
               norm_class_idx: 2
            -
               depth: 2
               value: 6.
               norm_class_idx: 5
               splits:
                  - { var:8, quality:7.0125000000000000e+03,
                      le:5.7922180175781250e+02 }
            -
               depth: 3
               value: 6.
               norm_class_idx: 5
            -
               depth: 3
               value: 6.
               norm_class_idx: 5
            -
               depth: 1
               value: 4.
               norm_class_idx: 3
               splits:
                  - { var:0, quality:1.5469468750000000e+04,
                      le:5.9803576660156250e+02 }
            -
               depth: 2
               value: 5.
               norm_class_idx: 4
               splits:
                  - { var:5, quality:1.2163320312500000e+04,
                      le:1.8520361328125000e+03 }
            -
               depth: 3
               value: 5.
               norm_class_idx: 4
               splits:
                  - { var:6, quality:7.1942924804687500e+03,
                      le:6.6175347900390625e+02 }
            -
               depth: 4
               value: 2.
               norm_class_idx: 1
               splits:
                  - { var:4, quality:1.6656744384765625e+03,
                      le:1.0814106445312500e+03 }
            -
               depth: 5
               value: 3.
               norm_class_idx: 2
            -
               depth: 5
               value: 2.
               norm_class_idx: 1
            -
               depth: 4
               value: 5.
               norm_class_idx: 4
               splits:
                  - { var:8, quality:7.4366972656250000e+03,
                      le:1.0700205078125000e+03 }
            -
               depth: 5
               value: 5.
               norm_class_idx: 4
            -
               depth: 5
               value: 6.
               norm_class_idx: 5
            -
               depth: 3
               value: 11.
               norm_class_idx: 7
               splits:
                  - { var:0, quality:1.2041339843750000e+04,
                      le:4.5872393798828125e+02 }
            -
               depth: 4
               value: 11.
               norm_class_idx: 7
               splits:
                  - { var:0, quality:9.1428652343750000e+03,
                      le:3.4734265136718750e+02 }
            -
               depth: 5
               value: 12.
               norm_class_idx: 8
            -
               depth: 5
               value: 1.
               norm_class_idx: 0
            -
               depth: 4
               value: 2.
               norm_class_idx: 1
               splits:
                  - { var:1, quality:5.5769018554687500e+03,
                      le:1.2375346679687500e+03 }
            -
               depth: 5
               value: 1.
               norm_class_idx: 0
            -
               depth: 5
               value: 2.
               norm_class_idx: 1
            -
               depth: 2
               value: 7.
               norm_class_idx: 6
               splits:
                  - { var:9, quality:1.3509749023437500e+04,
                      le:1.9279274902343750e+03 }
            -
               depth: 3
               value: 4.
               norm_class_idx: 3
               splits:
                  - { var:6, quality:1.0813743164062500e+04,
                      le:1.1008974609375000e+03 }
            -
               depth: 4
               value: 3.
               norm_class_idx: 2
               splits:
                  - { var:2, quality:8.0495058593750000e+03,
                      le:2.7543447265625000e+03 }
            -
               depth: 5
               value: 3.
               norm_class_idx: 2
            -
               depth: 5
               value: 4.
               norm_class_idx: 3
            -
               depth: 4
               value: 7.
               norm_class_idx: 6
               splits:
                  - { var:0, quality:8.2378701171875000e+03,
                      le:1.2173677978515625e+03 }
            -
               depth: 5
               value: 4.
               norm_class_idx: 3
            -
               depth: 5
               value: 7.
               norm_class_idx: 6
            -
               depth: 3
               value: 13.
               norm_class_idx: 9
               splits:
                  - { var:5, quality:6.8774853515625000e+03,
                      le:3.0260209960937500e+03 }
            -
               depth: 4
               value: 7.
               norm_class_idx: 6
               splits:
                  - { var:0, quality:8.5456707763671875e+02,
                      le:2.1161271972656250e+03 }
            -
               depth: 5
               value: 13.
               norm_class_idx: 9
            -
               depth: 5
               value: 7.
               norm_class_idx: 6
            -
               depth: 4
               value: 13.
               norm_class_idx: 9
               splits:
                  - { var:0, quality:6.4885810546875000e+03,
                      le:4.1088481445312500e+03 }
            -
               depth: 5
               value: 13.
               norm_class_idx: 9
            -
               depth: 5
               value: 7.
               norm_class_idx: 6
      -
         nodes:
            -
               depth: 0
               value: 3.
               norm_class_idx: 2
               splits:
                  - { var:2, quality:1.4896491210937500e+04,
                      le:6.9254760742187500e+02 }
            -
               depth: 1
               value: 6.
               norm_class_idx: 5
               splits:
                  - { var:3, quality:6.9936977539062500e+03,
                      le:5.2640515136718750e+02 }
            -
               depth: 2
               value: 6.
               norm_class_idx: 5
               splits:
                  - { var:4, quality:6.4590039062500000e+03,
                      le:5.8649401855468750e+02 }
            -
               depth: 3
               value: 6.
               norm_class_idx: 5
            -
               depth: 3
               value: 6.
               norm_class_idx: 5
               splits:
                  - { var:5, quality:483., le:5.1992108154296875e+02 }
            -
               depth: 4
               value: 3.
               norm_class_idx: 2
            -
               depth: 4
               value: 6.
               norm_class_idx: 5
            -
               depth: 2
               value: 6.
               norm_class_idx: 5
               splits:
                  - { var:5, quality:562., le:5.3721295166015625e+02 }
            -
               depth: 3
               value: 3.
               norm_class_idx: 2
            -
               depth: 3
               value: 6.
               norm_class_idx: 5
            -
               depth: 1
               value: 4.
               norm_class_idx: 3
               splits:
                  - { var:5, quality:1.3566907226562500e+04,
                      le:3.2744685058593750e+03 }
            -
               depth: 2
               value: 3.
               norm_class_idx: 2
               splits:
                  - { var:0, quality:1.4866480468750000e+04,
                      le:6.0627441406250000e+02 }
            -
               depth: 3
               value: 12.
               norm_class_idx: 8
               splits:
                  - { var:1, quality:1.3627186523437500e+04,
                      le:1.2003037109375000e+03 }
            -
               depth: 4
               value: 11.
               norm_class_idx: 7
               splits:
                  - { var:8, quality:1.2207503906250000e+04,
                      le:7.9987353515625000e+02 }
            -
               depth: 5
               value: 12.
               norm_class_idx: 8
            -
               depth: 5
               value: 11.
               norm_class_idx: 7
            -
               depth: 4
               value: 2.
               norm_class_idx: 1
               splits:
                  - { var:2, quality:6.3640595703125000e+03,
                      le:3.9019848632812500e+03 }
            -
               depth: 5
               value: 2.
               norm_class_idx: 1
            -
               depth: 5
               value: 4.
               norm_class_idx: 3
            -
               depth: 3
               value: 3.
               norm_class_idx: 2
               splits:
                  - { var:0, quality:1.2535776367187500e+04,
                      le:1.2367857666015625e+03 }
            -
               depth: 4
               value: 3.
               norm_class_idx: 2
               splits:
                  - { var:4, quality:1.0376469726562500e+04,
                      le:2.3398972167968750e+03 }
            -
               depth: 5
               value: 3.
               norm_class_idx: 2
            -
               depth: 5
               value: 4.
               norm_class_idx: 3
            -
               depth: 4
               value: 7.
               norm_class_idx: 6
               splits:
                  - { var:4, quality:6.4537744140625000e+03,
                      le:2.9835686035156250e+03 }
            -
               depth: 5
               value: 7.
               norm_class_idx: 6
            -
               depth: 5
               value: 13.
               norm_class_idx: 9
            -
               depth: 2
               value: 13.
               norm_class_idx: 9
               splits:
                  - { var:8, quality:6.3242866210937500e+03,
                      le:1.9291936035156250e+03 }
            -
               depth: 3
               value: 4.
               norm_class_idx: 3
               splits:
                  - { var:2, quality:2.3320747375488281e+02,
                      le:4.2071518554687500e+03 }
            -
               depth: 4
               value: 7.
               norm_class_idx: 6
            -
               depth: 4
               value: 4.
               norm_class_idx: 3
               splits:
                  - { var:0, quality:2.3313333129882812e+02,
                      le:2.0695417480468750e+03 }
            -
               depth: 5
               value: 4.
               norm_class_idx: 3
            -
               depth: 5
               value: 7.
               norm_class_idx: 6
            -
               depth: 3
               value: 13.
               norm_class_idx: 9
               splits:
                  - { var:0, quality:6.2504350585937500e+03,
                      le:4.1088481445312500e+03 }
            -
               depth: 4
               value: 13.
               norm_class_idx: 9
               splits:
                  - { var:7, quality:6.2029355468750000e+03,
                      le:6.2183085937500000e+03 }
            -
               depth: 5
               value: 13.
               norm_class_idx: 9
            -
               depth: 5
               value: 7.
               norm_class_idx: 6
            -
               depth: 4
               value: 7.
               norm_class_idx: 6
               splits:
                  - { var:9, quality:8.6391304016113281e+01,
                      le:4.5477246093750000e+03 }
            -
               depth: 5
               value: 7.
               norm_class_idx: 6
            -
               depth: 5
               value: 7.
               norm_class_idx: 6
      -
         nodes:
            -
               depth: 0
               value: 1.
               norm_class_idx: 0
               splits:
                  - { var:3, quality:1.4739962890625000e+04,
                      le:6.6886126708984375e+02 }
            -
               depth: 1
               value: 6.
               norm_class_idx: 5
               splits:
                  - { var:2, quality:7.1332734375000000e+03,
                      le:6.1311791992187500e+02 }
            -
               depth: 2
               value: 6.
               norm_class_idx: 5
            -
               depth: 2
               value: 3.
               norm_class_idx: 2
               splits:
                  - { var:4, quality:1.3533332824707031e+02,
                      le:7.4611120605468750e+02 }
            -
               depth: 3
               value: 3.
               norm_class_idx: 2
            -
               depth: 3
               value: 4.
               norm_class_idx: 3
            -
               depth: 1
               value: 1.
               norm_class_idx: 0
               splits:
                  - { var:7, quality:1.5064299804687500e+04,
                      le:5.2273931884765625e+02 }
            -
               depth: 2
               value: 1.
               norm_class_idx: 0
               splits:
                  - { var:0, quality:1.2408173828125000e+04,
                      le:4.4332855224609375e+02 }
            -
               depth: 3
               value: 11.
               norm_class_idx: 7
               splits:
                  - { var:2, quality:1.1865601562500000e+04,
                      le:2.6254279785156250e+03 }
            -
               depth: 4
               value: 5.
               norm_class_idx: 4
               splits:
                  - { var:0, quality:6.2196455078125000e+03,
                      le:3.5187750244140625e+02 }
            -
               depth: 5
               value: 11.
               norm_class_idx: 7
            -
               depth: 5
               value: 5.
               norm_class_idx: 4
            -
               depth: 4
               value: 12.
               norm_class_idx: 8
               splits:
                  - { var:0, quality:8.7031435546875000e+03,
                      le:3.4342138671875000e+02 }
            -
               depth: 5
               value: 12.
               norm_class_idx: 8
            -
               depth: 5
               value: 1.
               norm_class_idx: 0
            -
               depth: 3
               value: 2.
               norm_class_idx: 1
               splits:
                  - { var:6, quality:6.1002568359375000e+03,
                      le:8.1073986816406250e+02 }
            -
               depth: 4
               value: 2.
               norm_class_idx: 1
               splits:
                  - { var:2, quality:6.3298647460937500e+03,
                      le:1.4184184570312500e+03 }
            -
               depth: 5
               value: 3.
               norm_class_idx: 2
            -
               depth: 5
               value: 2.
               norm_class_idx: 1
            -
               depth: 4
               value: 5.
               norm_class_idx: 4
               splits:
                  - { var:4, quality:1.2125369873046875e+03,
                      le:2.7225048828125000e+03 }
            -
               depth: 5
               value: 5.
               norm_class_idx: 4
            -
               depth: 5
               value: 4.
               norm_class_idx: 3
            -
               depth: 2
               value: 13.
               norm_class_idx: 9
               splits:
                  - { var:7, quality:1.2839225585937500e+04,
                      le:9.4482775878906250e+02 }
            -
               depth: 3
               value: 3.
               norm_class_idx: 2
               splits:
                  - { var:5, quality:9.3466025390625000e+03,
                      le:1.9504206542968750e+03 }
            -
               depth: 4
               value: 3.
               norm_class_idx: 2
               splits:
                  - { var:6, quality:6.0665664062500000e+03,
                      le:1.0971389160156250e+03 }
            -
               depth: 5
               value: 3.
               norm_class_idx: 2
            -
               depth: 5
               value: 4.
               norm_class_idx: 3
            -
               depth: 4
               value: 4.
               norm_class_idx: 3
               splits:
                  - { var:2, quality:4.1854086914062500e+03,
                      le:3.1222226562500000e+03 }
            -
               depth: 5
               value: 4.
               norm_class_idx: 3
            -
               depth: 5
               value: 4.
               norm_class_idx: 3
            -
               depth: 3
               value: 13.
               norm_class_idx: 9
               splits:
                  - { var:2, quality:1.0864225585937500e+04,
                      le:3.6362741699218750e+03 }
            -
               depth: 4
               value: 7.
               norm_class_idx: 6
               splits:
                  - { var:0, quality:5.6953056640625000e+03,
                      le:4.3482638549804688e+02 }
            -
               depth: 5
               value: 6.
               norm_class_idx: 5
            -
               depth: 5
               value: 7.
               norm_class_idx: 6
            -
               depth: 4
               value: 13.
               norm_class_idx: 9
               splits:
                  - { var:9, quality:6.8428686523437500e+03,
                      le:1.8894273681640625e+03 }
            -
               depth: 5
               value: 4.
               norm_class_idx: 3
            -
               depth: 5
               value: 13.
               norm_class_idx: 9
      -
         nodes:
            -
               depth: 0
               value: 7.
               norm_class_idx: 6
               splits:
                  - { var:2, quality:1.4994580078125000e+04,
                      le:1.3175821533203125e+03 }
            -
               depth: 1
               value: 6.
               norm_class_idx: 5
               splits:
                  - { var:8, quality:7.5846455078125000e+03,
                      le:6.1157318115234375e+02 }
            -
               depth: 2
               value: 3.
               norm_class_idx: 2
               splits:
                  - { var:1, quality:6.1069604492187500e+02,
                      le:3.5058523559570312e+02 }
            -
               depth: 3
               value: 6.
               norm_class_idx: 5
            -
               depth: 3
               value: 3.
               norm_class_idx: 2
               splits:
                  - { var:7, quality:4.6278500366210938e+02,
                      le:3.5350979614257812e+02 }
            -
               depth: 4
               value: 2.
               norm_class_idx: 1
               splits:
                  - { var:9, quality:3.3333332061767578e+01,
                      le:6.6272894287109375e+02 }
            -
               depth: 5
               value: 4.
               norm_class_idx: 3
            -
               depth: 5
               value: 2.
               norm_class_idx: 1
            -
               depth: 4
               value: 3.
               norm_class_idx: 2
               splits:
                  - { var:3, quality:4.4000454711914062e+02,
                      le:9.4337097167968750e+02 }
            -
               depth: 5
               value: 3.
               norm_class_idx: 2
            -
               depth: 5
               value: 12.
               norm_class_idx: 8
            -
               depth: 2
               value: 6.
               norm_class_idx: 5
               splits:
                  - { var:0, quality:8.3815019531250000e+03,
                      le:1.3839274597167969e+02 }
            -
               depth: 3
               value: 6.
               norm_class_idx: 5
            -
               depth: 3
               value: 3.
               norm_class_idx: 2
               splits:
                  - { var:4, quality:6.2193597412109375e+02,
                      le:1.1419461669921875e+03 }
            -
               depth: 4
               value: 3.
               norm_class_idx: 2
               splits:
                  - { var:9, quality:620., le:8.1560076904296875e+02 }
            -
               depth: 5
               value: 4.
               norm_class_idx: 3
            -
               depth: 5
               value: 3.
               norm_class_idx: 2
            -
               depth: 4
               value: 7.
               norm_class_idx: 6
               splits:
                  - { var:6, quality:1.0600000381469727e+01,
                      le:7.6232092285156250e+02 }
            -
               depth: 5
               value: 4.
               norm_class_idx: 3
            -
               depth: 5
               value: 7.
               norm_class_idx: 6
            -
               depth: 1
               value: 7.
               norm_class_idx: 6
               splits:
                  - { var:6, quality:1.4624708007812500e+04,
                      le:8.5388671875000000e+02 }
            -
               depth: 2
               value: 12.
               norm_class_idx: 8
               splits:
                  - { var:1, quality:1.3133188476562500e+04,
                      le:1.1943709716796875e+03 }
            -
               depth: 3
               value: 12.
               norm_class_idx: 8
               splits:
                  - { var:4, quality:1.2708264648437500e+04,
                      le:2.3113071289062500e+03 }
            -
               depth: 4
               value: 5.
               norm_class_idx: 4
               splits:
                  - { var:8, quality:6.6991098632812500e+03,
                      le:6.5578417968750000e+02 }
            -
               depth: 5
               value: 2.
               norm_class_idx: 1
            -
               depth: 5
               value: 5.
               norm_class_idx: 4
            -
               depth: 4
               value: 12.
               norm_class_idx: 8
               splits:
                  - { var:1, quality:9.4392607421875000e+03,
                      le:1.0180747070312500e+03 }
            -
               depth: 5
               value: 12.
               norm_class_idx: 8
            -
               depth: 5
               value: 1.
               norm_class_idx: 0
            -
               depth: 3
               value: 2.
               norm_class_idx: 1
               splits:
                  - { var:6, quality:6.2212060546875000e+03,
                      le:8.0746337890625000e+02 }
            -
               depth: 4
               value: 2.
               norm_class_idx: 1
               splits:
                  - { var:0, quality:6.4225800781250000e+03,
                      le:6.1403906250000000e+02 }
            -
               depth: 5
               value: 2.
               norm_class_idx: 1
            -
               depth: 5
               value: 3.
               norm_class_idx: 2
            -
               depth: 4
               value: 2.
               norm_class_idx: 1
               splits:
                  - { var:4, quality:5.3429211425781250e+02,
                      le:2.6754484863281250e+03 }
            -
               depth: 5
               value: 5.
               norm_class_idx: 4
            -
               depth: 5
               value: 2.
               norm_class_idx: 1
            -
               depth: 2
               value: 7.
               norm_class_idx: 6
               splits:
                  - { var:0, quality:1.4209940429687500e+04,
                      le:4.2328744506835938e+02 }
            -
               depth: 3
               value: 11.
               norm_class_idx: 7
               splits:
                  - { var:0, quality:6.8110253906250000e+03,
                      le:4.1809634399414062e+02 }
            -
               depth: 4
               value: 11.
               norm_class_idx: 7
               splits:
                  - { var:5, quality:6.8087587890625000e+03,
                      le:1.8239273681640625e+03 }
            -
               depth: 5
               value: 5.
               norm_class_idx: 4
            -
               depth: 5
               value: 11.
               norm_class_idx: 7
            -
               depth: 4
               value: 11.
               norm_class_idx: 7
               splits:
                  - { var:8, quality:49., le:8.0303149414062500e+02 }
            -
               depth: 5
               value: 5.
               norm_class_idx: 4
            -
               depth: 5
               value: 11.
               norm_class_idx: 7
            -
               depth: 3
               value: 7.
               norm_class_idx: 6
               splits:
                  - { var:9, quality:1.2974661132812500e+04,
                      le:2.1070903320312500e+03 }
            -
               depth: 4
               value: 4.
               norm_class_idx: 3
               splits:
                  - { var:0, quality:1.1580761718750000e+04,
                      le:1.2362011718750000e+03 }
            -
               depth: 5
               value: 4.
               norm_class_idx: 3
            -
               depth: 5
               value: 7.
               norm_class_idx: 6
            -
               depth: 4
               value: 13.
               norm_class_idx: 9
               splits:
                  - { var:3, quality:6.6607358398437500e+03,
                      le:3.2780815429687500e+03 }
            -
               depth: 5
               value: 7.
               norm_class_idx: 6
            -
               depth: 5
               value: 13.
               norm_class_idx: 9
      -
         nodes:
            -
               depth: 0
               value: 12.
               norm_class_idx: 8
               splits:
                  - { var:1, quality:1.6043637695312500e+04,
                      le:3.5058523559570312e+02 }
            -
               depth: 1
               value: 6.
               norm_class_idx: 5
            -
               depth: 1
               value: 12.
               norm_class_idx: 8
               splits:
                  - { var:9, quality:1.4280157226562500e+04,
                      le:1.0957094726562500e+03 }
            -
               depth: 2
               value: 12.
               norm_class_idx: 8
               splits:
                  - { var:1, quality:1.4053755859375000e+04,
                      le:1.2003015136718750e+03 }
            -
               depth: 3
               value: 12.
               norm_class_idx: 8
               splits:
                  - { var:6, quality:1.3544048828125000e+04,
                      le:8.3845654296875000e+02 }
            -
               depth: 4
               value: 12.
               norm_class_idx: 8
               splits:
                  - { var:3, quality:1.1462610351562500e+04,
                      le:2.2209843750000000e+03 }
            -
               depth: 5
               value: 5.
               norm_class_idx: 4
            -
               depth: 5
               value: 1.
               norm_class_idx: 0
            -
               depth: 4
               value: 11.
               norm_class_idx: 7
               splits:
                  - { var:0, quality:7.3499882812500000e+03,
                      le:4.1700805664062500e+02 }
            -
               depth: 5
               value: 11.
               norm_class_idx: 7
            -
               depth: 5
               value: 5.
               norm_class_idx: 4
            -
               depth: 3
               value: 3.
               norm_class_idx: 2
               splits:
                  - { var:0, quality:1.2736384765625000e+04,
                      le:6.0824511718750000e+02 }
            -
               depth: 4
               value: 2.
               norm_class_idx: 1
               splits:
                  - { var:2, quality:6.4511523437500000e+03,
                      le:3.9841892089843750e+03 }
            -
               depth: 5
               value: 2.
               norm_class_idx: 1
            -
               depth: 5
               value: 4.
               norm_class_idx: 3
            -
               depth: 4
               value: 3.
               norm_class_idx: 2
               splits:
                  - { var:2, quality:9.6904833984375000e+03,
                      le:2.7364050292968750e+03 }
            -
               depth: 5
               value: 3.
               norm_class_idx: 2
            -
               depth: 5
               value: 4.
               norm_class_idx: 3
            -
               depth: 2
               value: 13.
               norm_class_idx: 9
               splits:
                  - { var:2, quality:1.0425847656250000e+04,
                      le:3.6124714355468750e+03 }
            -
               depth: 3
               value: 7.
               norm_class_idx: 6
               splits:
                  - { var:5, quality:4.1961386718750000e+03,
                      le:2.3663564453125000e+03 }
            -
               depth: 4
               value: 7.
               norm_class_idx: 6
               splits:
                  - { var:1, quality:3.3555688476562500e+03,
                      le:1.8163347167968750e+03 }
            -
               depth: 5
               value: 13.
               norm_class_idx: 9
            -
               depth: 5
               value: 7.
               norm_class_idx: 6
            -
               depth: 4
               value: 7.
               norm_class_idx: 6
               splits:
                  - { var:6, quality:1.1484392089843750e+03,
                      le:1.5431972656250000e+03 }
            -
               depth: 5
               value: 4.
               norm_class_idx: 3
            -
               depth: 5
               value: 7.
               norm_class_idx: 6
            -
               depth: 3
               value: 13.
               norm_class_idx: 9
               splits:
                  - { var:5, quality:6.5766005859375000e+03,
                      le:3.1430629882812500e+03 }
            -
               depth: 4
               value: 13.
               norm_class_idx: 9
               splits:
                  - { var:2, quality:3.4519763183593750e+02,
                      le:4.0805141601562500e+03 }
            -
               depth: 5
               value: 13.
               norm_class_idx: 9
            -
               depth: 5
               value: 4.
               norm_class_idx: 3
            -
               depth: 4
               value: 13.
               norm_class_idx: 9
               splits:
                  - { var:8, quality:6.3499404296875000e+03,
                      le:5.7526987304687500e+03 }
            -
               depth: 5
               value: 13.
               norm_class_idx: 9
            -
               depth: 5
               value: 7.
               norm_class_idx: 6
      -
         nodes:
            -
               depth: 0
               value: 7.
               norm_class_idx: 6
               splits:
                  - { var:1, quality:1.6017333007812500e+04,
                      le:3.5058523559570312e+02 }
            -
               depth: 1
               value: 6.
               norm_class_idx: 5
            -
               depth: 1
               value: 7.
               norm_class_idx: 6
               splits:
                  - { var:1, quality:1.5039776367187500e+04,
                      le:1.5656447753906250e+03 }
            -
               depth: 2
               value: 5.
               norm_class_idx: 4
               splits:
                  - { var:1, quality:1.2943101562500000e+04,
                      le:1.1943773193359375e+03 }
            -
               depth: 3
               value: 11.
               norm_class_idx: 7
               splits:
                  - { var:4, quality:1.2623040039062500e+04,
                      le:2.3130400390625000e+03 }
            -
               depth: 4
               value: 5.
               norm_class_idx: 4
               splits:
                  - { var:6, quality:6.8195458984375000e+03,
                      le:6.5539135742187500e+02 }
            -
               depth: 5
               value: 2.
               norm_class_idx: 1
            -
               depth: 5
               value: 5.
               norm_class_idx: 4
            -
               depth: 4
               value: 12.
               norm_class_idx: 8
               splits:
                  - { var:6, quality:1.3371895507812500e+04,
                      le:8.2619012451171875e+02 }
            -
               depth: 5
               value: 12.
               norm_class_idx: 8
            -
               depth: 5
               value: 11.
               norm_class_idx: 7
            -
               depth: 3
               value: 2.
               norm_class_idx: 1
               splits:
                  - { var:4, quality:6.4497099609375000e+03,
                      le:2.0923027343750000e+03 }
            -
               depth: 4
               value: 3.
               norm_class_idx: 2
               splits:
                  - { var:7, quality:5.1228082275390625e+02,
                      le:6.2466125488281250e+02 }
            -
               depth: 5
               value: 3.
               norm_class_idx: 2
            -
               depth: 5
               value: 4.
               norm_class_idx: 3
            -
               depth: 4
               value: 2.
               norm_class_idx: 1
               splits:
                  - { var:7, quality:6.3949926757812500e+03,
                      le:4.9766082763671875e+02 }
            -
               depth: 5
               value: 2.
               norm_class_idx: 1
            -
               depth: 5
               value: 5.
               norm_class_idx: 4
            -
               depth: 2
               value: 7.
               norm_class_idx: 6
               splits:
                  - { var:7, quality:1.2938541992187500e+04,
                      le:9.1338262939453125e+02 }
            -
               depth: 3
               value: 3.
               norm_class_idx: 2
               splits:
                  - { var:5, quality:9.2871992187500000e+03,
                      le:1.9504206542968750e+03 }
            -
               depth: 4
               value: 3.
               norm_class_idx: 2
               splits:
                  - { var:9, quality:5.2327646484375000e+03,
                      le:8.7490844726562500e+02 }
            -
               depth: 5
               value: 7.
               norm_class_idx: 6
            -
               depth: 5
               value: 3.
               norm_class_idx: 2
            -
               depth: 4
               value: 4.
               norm_class_idx: 3
               splits:
                  - { var:2, quality:4.4097036132812500e+03,
                      le:2.7826489257812500e+03 }
            -
               depth: 5
               value: 4.
               norm_class_idx: 3
            -
               depth: 5
               value: 4.
               norm_class_idx: 3
            -
               depth: 3
               value: 13.
               norm_class_idx: 9
               splits:
                  - { var:2, quality:1.1434074218750000e+04,
                      le:3.6117148437500000e+03 }
            -
               depth: 4
               value: 7.
               norm_class_idx: 6
               splits:
                  - { var:9, quality:5.0947065429687500e+03,
                      le:1.8750177001953125e+03 }
            -
               depth: 5
               value: 7.
               norm_class_idx: 6
            -
               depth: 5
               value: 7.
               norm_class_idx: 6
            -
               depth: 4
               value: 13.
               norm_class_idx: 9
               splits:
                  - { var:6, quality:6.6972416992187500e+03,
                      le:2.2429096679687500e+03 }
            -
               depth: 5
               value: 13.
               norm_class_idx: 9
            -
               depth: 5
               value: 13.
               norm_class_idx: 9
      -
         nodes:
            -
               depth: 0
               value: 11.
               norm_class_idx: 7
               splits:
                  - { var:1, quality:1.5903715820312500e+04,
                      le:3.6129699707031250e+02 }
            -
               depth: 1
               value: 6.
               norm_class_idx: 5
            -
               depth: 1
               value: 11.
               norm_class_idx: 7
               splits:
                  - { var:0, quality:1.5603492187500000e+04,
                      le:6.0225610351562500e+02 }
            -
               depth: 2
               value: 11.
               norm_class_idx: 7
               splits:
                  - { var:1, quality:1.3816507812500000e+04,
                      le:1.1977642822265625e+03 }
            -
               depth: 3
               value: 11.
               norm_class_idx: 7
               splits:
                  - { var:4, quality:1.2877331054687500e+04,
                      le:2.2934619140625000e+03 }
            -
               depth: 4
               value: 5.
               norm_class_idx: 4
               splits:
                  - { var:9, quality:6.3766840820312500e+03,
                      le:7.7858453369140625e+02 }
            -
               depth: 5
               value: 2.
               norm_class_idx: 1
            -
               depth: 5
               value: 5.
               norm_class_idx: 4
            -
               depth: 4
               value: 1.
               norm_class_idx: 0
               splits:
